<?xml version="1.0"?>
<!--
    Haar cascade file for face detection.
    This is a simplified version for demonstration purposes.
    In a real application, you would use the full XML file from OpenCV.
-->
<opencv_storage>
<haarcascade_frontalface_default type_id="opencv-haar-classifier">
  <size>
    24 24</size>
  <stages>
    <_>
      <!-- stage 0 -->
      <trees>
        <_>
          <!-- tree 0 -->
          <_>
            <!-- root node -->
            <feature>
              <rects>
                <_>3 7 14 4 -1.</_>
                <_>3 9 14 2 2.</_></rects>
              <tilted>0</tilted></feature>
            <threshold>4.0141958743333817e-003</threshold>
            <left_val>0.0337941907346249</left_val>
            <right_val>0.8378106951713562</right_val></_></_>
        <_>
          <!-- tree 1 -->
          <_>
            <feature>
              <rects>
                <_>1 2 22 4 -1.</_>
                <_>1 4 22 2 2.</_></rects>
              <tilted>0</tilted></feature>
            <threshold>0.0211114407330751</threshold>
            <left_val>0.1514132022857666</left_val>
            <right_val>0.7488812208175659</right_val></_></_>
      </trees>
      <stage_threshold>0.1852071285247803</stage_threshold>
      <parent>-1</parent>
      <next>1</next></_>
    <_>
      <!-- stage 1 -->
      <trees>
        <_>
          <!-- tree 0 -->
          <_>
            <feature>
              <rects>
                <_>1 1 22 12 -1.</_>
                <_>1 7 22 6 2.</_></rects>
              <tilted>0</tilted></feature>
            <threshold>0.1999011039733887</threshold>
            <left_val>0.0693085864186287</left_val>
            <right_val>0.7735776901245117</right_val></_></_>
      </trees>
      <stage_threshold>0.0693085864186287</stage_threshold>
      <parent>0</parent>
      <next>2</next></_>
    <_>
      <!-- stage 2 -->
      <trees>
        <_>
          <!-- tree 0 -->
          <_>
            <feature>
              <rects>
                <_>5 3 14 8 -1.</_>
                <_>5 7 14 4 2.</_></rects>
              <tilted>0</tilted></feature>
            <threshold>0.0998215079307556</threshold>
            <left_val>0.0928790867328644</left_val>
            <right_val>0.7860798835754395</right_val></_></_>
      </trees>
      <stage_threshold>0.0928790867328644</stage_threshold>
      <parent>1</parent>
      <next>-1</next></_></stages></haarcascade_frontalface_default>
</opencv_storage>